<?xml version="1.0"?>
<opencv_storage>
<stage5>
  <maxWeakCount>5</maxWeakCount>
  <stageThreshold>-1.3814301490783691e+00</stageThreshold>
  <weakClassifiers>
    <_>
      <internalNodes>
        0 -1 1303764 -7.3181120678782463e-03</internalNodes>
      <leafValues>
        1. -8.7815749645233154e-01</leafValues></_>
    <_>
      <internalNodes>
        0 -1 2323974 4.0478684240952134e-04</internalNodes>
      <leafValues>
        -5.2739165723323822e-02 -9.4099521636962891e-01</leafValues></_>
    <_>
      <internalNodes>
        0 -1 1794 -2.1314181387424469e-02</internalNodes>
      <leafValues>
        1.9684621691703796e-01 -8.8188177347183228e-01</leafValues></_>
    <_>
      <internalNodes>
        0 -1 2923978 3.9201998151838779e-04</internalNodes>
      <leafValues>
        2.0604456961154938e-01 -1.</leafValues></_>
    <_>
      <internalNodes>
        0 -1 3002056 1.8920349248219281e-04</internalNodes>
      <leafValues>
        2.2530378401279449e-01 -9.8896420001983643e-01</leafValues></_></weakClassifiers></stage5>
</opencv_storage>
