<?xml version="1.0"?>
<opencv_storage>
<stage6>
  <maxWeakCount>8</maxWeakCount>
  <stageThreshold>-1.3790355920791626e+00</stageThreshold>
  <weakClassifiers>
    <_>
      <internalNodes>
        0 -1 2501230 4.9654068425297737e-03</internalNodes>
      <leafValues>
        -8.8077497482299805e-01 8.1818181276321411e-01</leafValues></_>
    <_>
      <internalNodes>
        0 -1 330513 -4.6536423265933990e-02</internalNodes>
      <leafValues>
        3.5227257013320923e-01 -6.3331252336502075e-01</leafValues></_>
    <_>
      <internalNodes>
        0 -1 199679 4.2736035538837314e-04</internalNodes>
      <leafValues>
        2.0093359053134918e-01 -9.3205052614212036e-01</leafValues></_>
    <_>
      <internalNodes>
        0 -1 64574 -4.0790296225168277e-06</internalNodes>
      <leafValues>
        2.7186131477355957e-01 -7.3066741228103638e-01</leafValues></_>
    <_>
      <internalNodes>
        0 -1 194323 -1.0723260929808021e-03</internalNodes>
      <leafValues>
        -9.3729269504547119e-01 2.5936576724052429e-01</leafValues></_>
    <_>
      <internalNodes>
        0 -1 42998 1.0657395614543930e-04</internalNodes>
      <leafValues>
        1.4921139180660248e-01 -1.</leafValues></_>
    <_>
      <internalNodes>
        0 -1 6449 -1.6804073005914688e-02</internalNodes>
      <leafValues>
        2.3552650213241577e-01 -8.4841144084930420e-01</leafValues></_>
    <_>
      <internalNodes>
        0 -1 2160 -1.1451990576460958e-03</internalNodes>
      <leafValues>
        -8.3093333244323730e-01 2.4949038028717041e-01</leafValues></_></weakClassifiers></stage6>
</opencv_storage>
