<?xml version="1.0"?>
<opencv_storage>
<stage0>
  <maxWeakCount>5</maxWeakCount>
  <stageThreshold>-1.3311759233474731e+00</stageThreshold>
  <weakClassifiers>
    <_>
      <internalNodes>
        0 -1 2552415 3.5392474383115768e-02</internalNodes>
      <leafValues>
        -9.2272025346755981e-01 4.2857143282890320e-01</leafValues></_>
    <_>
      <internalNodes>
        0 -1 134637 -3.4639663994312286e-02</internalNodes>
      <leafValues>
        2.9773461818695068e-01 -8.9338684082031250e-01</leafValues></_>
    <_>
      <internalNodes>
        0 -1 1932944 2.0116344094276428e-02</internalNodes>
      <leafValues>
        -5.6717932224273682e-01 8.3107048273086548e-01</leafValues></_>
    <_>
      <internalNodes>
        0 -1 658300 -8.0520357005298138e-04</internalNodes>
      <leafValues>
        -1. 4.0359547734260559e-01</leafValues></_>
    <_>
      <internalNodes>
        0 -1 856975 4.6576313674449921e-02</internalNodes>
      <leafValues>
        -5.4260641336441040e-01 8.5910904407501221e-01</leafValues></_></weakClassifiers></stage0>
</opencv_storage>
